1.812124837709167139e-33 0.000000000000000000e+00 0.000000000000000000e+00 0.000000000000000000e+00 0.000000000000000000e+00 0.000000000000000000e+00 0.000000000000000000e+00 0.000000000000000000e+00 0.000000000000000000e+00 0.000000000000000000e+00 0.000000000000000000e+00 0.000000000000000000e+00 0.000000000000000000e+00 0.000000000000000000e+00 0.000000000000000000e+00 0.000000000000000000e+00 0.000000000000000000e+00 0.000000000000000000e+00 0.000000000000000000e+00 0.000000000000000000e+00 0.000000000000000000e+00 0.000000000000000000e+00 0.000000000000000000e+00 0.000000000000000000e+00 0.000000000000000000e+00 0.000000000000000000e+00 0.000000000000000000e+00 0.000000000000000000e+00 0.000000000000000000e+00 0.000000000000000000e+00 0.000000000000000000e+00 0.000000000000000000e+00
1.459398124016973698e-23 1.675549270604796901e-19 0.000000000000000000e+00 0.000000000000000000e+00 0.000000000000000000e+00 0.000000000000000000e+00 0.000000000000000000e+00 0.000000000000000000e+00 0.000000000000000000e+00 0.000000000000000000e+00 0.000000000000000000e+00 0.000000000000000000e+00 0.000000000000000000e+00 0.000000000000000000e+00 0.000000000000000000e+00 0.000000000000000000e+00 0.000000000000000000e+00 0.000000000000000000e+00 0.000000000000000000e+00 0.000000000000000000e+00 0.000000000000000000e+00 0.000000000000000000e+00 0.000000000000000000e+00 0.000000000000000000e+00 0.000000000000000000e+00 0.000000000000000000e+00 0.000000000000000000e+00 0.000000000000000000e+00 0.000000000000000000e+00 0.000000000000000000e+00 0.000000000000000000e+00 0.000000000000000000e+00
-1.959698075985141308e-23 -6.324766562936843180e-19 2.028917635985663104e-01 0.000000000000000000e+00 0.000000000000000000e+00 0.000000000000000000e+00 0.000000000000000000e+00 0.000000000000000000e+00 0.000000000000000000e+00 0.000000000000000000e+00 0.000000000000000000e+00 0.000000000000000000e+00 0.000000000000000000e+00 0.000000000000000000e+00 0.000000000000000000e+00 0.000000000000000000e+00 0.000000000000000000e+00 0.000000000000000000e+00 0.000000000000000000e+00 0.000000000000000000e+00 0.000000000000000000e+00 0.000000000000000000e+00 0.000000000000000000e+00 0.000000000000000000e+00 0.000000000000000000e+00 0.000000000000000000e+00 0.000000000000000000e+00 0.000000000000000000e+00 0.000000000000000000e+00 0.000000000000000000e+00 0.000000000000000000e+00 0.000000000000000000e+00
-3.502328040939784683e-23 -5.465766604908469201e-19 -3.776755828591876751e-02 1.862516376652813832e-01 0.000000000000000000e+00 0.000000000000000000e+00 0.000000000000000000e+00 0.000000000000000000e+00 0.000000000000000000e+00 0.000000000000000000e+00 0.000000000000000000e+00 0.000000000000000000e+00 0.000000000000000000e+00 0.000000000000000000e+00 0.000000000000000000e+00 0.000000000000000000e+00 0.000000000000000000e+00 0.000000000000000000e+00 0.000000000000000000e+00 0.000000000000000000e+00 0.000000000000000000e+00 0.000000000000000000e+00 0.000000000000000000e+00 0.000000000000000000e+00 0.000000000000000000e+00 0.000000000000000000e+00 0.000000000000000000e+00 0.000000000000000000e+00 0.000000000000000000e+00 0.000000000000000000e+00 0.000000000000000000e+00 0.000000000000000000e+00
-8.854139348713424994e-23 1.424437120249639562e-18 8.967733421878490777e-03 -4.417248899108744409e-02 2.371606462628335077e-01 0.000000000000000000e+00 0.000000000000000000e+00 0.000000000000000000e+00 0.000000000000000000e+00 0.000000000000000000e+00 0.000000000000000000e+00 0.000000000000000000e+00 0.000000000000000000e+00 0.000000000000000000e+00 0.000000000000000000e+00 0.000000000000000000e+00 0.000000000000000000e+00 0.000000000000000000e+00 0.000000000000000000e+00 0.000000000000000000e+00 0.000000000000000000e+00 0.000000000000000000e+00 0.000000000000000000e+00 0.000000000000000000e+00 0.000000000000000000e+00 0.000000000000000000e+00 0.000000000000000000e+00 0.000000000000000000e+00 0.000000000000000000e+00 0.000000000000000000e+00 0.000000000000000000e+00 0.000000000000000000e+00
-1.005216608260133590e-22 -1.106007935839389828e-18 -5.877270703876573106e-04 2.872938268954831290e-03 -1.533710435760439819e-02 2.885371519332050050e-01 0.000000000000000000e+00 0.000000000000000000e+00 0.000000000000000000e+00 0.000000000000000000e+00 0.000000000000000000e+00 0.000000000000000000e+00 0.000000000000000000e+00 0.000000000000000000e+00 0.000000000000000000e+00 0.000000000000000000e+00 0.000000000000000000e+00 0.000000000000000000e+00 0.000000000000000000e+00 0.000000000000000000e+00 0.000000000000000000e+00 0.000000000000000000e+00 0.000000000000000000e+00 0.000000000000000000e+00 0.000000000000000000e+00 0.000000000000000000e+00 0.000000000000000000e+00 0.000000000000000000e+00 0.000000000000000000e+00 0.000000000000000000e+00 0.000000000000000000e+00 0.000000000000000000e+00
2.056653230817401962e-22 6.813038515192543478e-19 1.164421292635759277e-03 -5.720247849496305249e-03 3.069790994571318724e-02 1.051612065682125223e-02 3.407502008865983534e-01 0.000000000000000000e+00 0.000000000000000000e+00 0.000000000000000000e+00 0.000000000000000000e+00 0.000000000000000000e+00 0.000000000000000000e+00 0.000000000000000000e+00 0.000000000000000000e+00 0.000000000000000000e+00 0.000000000000000000e+00 0.000000000000000000e+00 0.000000000000000000e+00 0.000000000000000000e+00 0.000000000000000000e+00 0.000000000000000000e+00 0.000000000000000000e+00 0.000000000000000000e+00 0.000000000000000000e+00 0.000000000000000000e+00 0.000000000000000000e+00 0.000000000000000000e+00 0.000000000000000000e+00 0.000000000000000000e+00 0.000000000000000000e+00 0.000000000000000000e+00
3.974666408649404491e-23 5.821752568774813083e-19 -8.018464701330829019e-04 3.941756536739766600e-03 -2.112895804558786311e-02 1.880708969343149184e-02 -1.850990640137606391e-03 3.273959310771386577e-01 0.000000000000000000e+00 0.000000000000000000e+00 0.000000000000000000e+00 0.000000000000000000e+00 0.000000000000000000e+00 0.000000000000000000e+00 0.000000000000000000e+00 0.000000000000000000e+00 0.000000000000000000e+00 0.000000000000000000e+00 0.000000000000000000e+00 0.000000000000000000e+00 0.000000000000000000e+00 0.000000000000000000e+00 0.000000000000000000e+00 0.000000000000000000e+00 0.000000000000000000e+00 0.000000000000000000e+00 0.000000000000000000e+00 0.000000000000000000e+00 0.000000000000000000e+00 0.000000000000000000e+00 0.000000000000000000e+00 0.000000000000000000e+00
-5.275261531328807532e-23 -5.445315167985787187e-19 1.872160112539080477e-04 -9.154876304296420686e-04 4.907907332489100036e-03 -2.317431986719343390e-02 1.904297355557156221e-02 -7.995515221867414979e-03 3.448222411631588491e-01 0.000000000000000000e+00 0.000000000000000000e+00 0.000000000000000000e+00 0.000000000000000000e+00 0.000000000000000000e+00 0.000000000000000000e+00 0.000000000000000000e+00 0.000000000000000000e+00 0.000000000000000000e+00 0.000000000000000000e+00 0.000000000000000000e+00 0.000000000000000000e+00 0.000000000000000000e+00 0.000000000000000000e+00 0.000000000000000000e+00 0.000000000000000000e+00 0.000000000000000000e+00 0.000000000000000000e+00 0.000000000000000000e+00 0.000000000000000000e+00 0.000000000000000000e+00 0.000000000000000000e+00 0.000000000000000000e+00
-3.444814385545653614e-22 5.649290414169165827e-19 -2.746465053656217656e-05 1.346360659771870822e-04 -7.132548212932632954e-04 5.547900923594015210e-03 -2.425629893707894821e-02 1.348151885292305993e-02 7.591175696927674236e-05 3.639106329383562377e-01 0.000000000000000000e+00 0.000000000000000000e+00 0.000000000000000000e+00 0.000000000000000000e+00 0.000000000000000000e+00 0.000000000000000000e+00 0.000000000000000000e+00 0.000000000000000000e+00 0.000000000000000000e+00 0.000000000000000000e+00 0.000000000000000000e+00 0.000000000000000000e+00 0.000000000000000000e+00 0.000000000000000000e+00 0.000000000000000000e+00 0.000000000000000000e+00 0.000000000000000000e+00 0.000000000000000000e+00 0.000000000000000000e+00 0.000000000000000000e+00 0.000000000000000000e+00 0.000000000000000000e+00
-6.659506304405927684e-23 -3.670702481433260031e-19 4.067019096466320614e-05 -1.995618523701889527e-04 1.072943489328708009e-03 -4.261338151753716702e-05 6.652203991420672750e-03 -2.751542918248581562e-02 2.100129767209458695e-02 8.364553664270163447e-03 3.838447784698560961e-01 0.000000000000000000e+00 0.000000000000000000e+00 0.000000000000000000e+00 0.000000000000000000e+00 0.000000000000000000e+00 0.000000000000000000e+00 0.000000000000000000e+00 0.000000000000000000e+00 0.000000000000000000e+00 0.000000000000000000e+00 0.000000000000000000e+00 0.000000000000000000e+00 0.000000000000000000e+00 0.000000000000000000e+00 0.000000000000000000e+00 0.000000000000000000e+00 0.000000000000000000e+00 0.000000000000000000e+00 0.000000000000000000e+00 0.000000000000000000e+00 0.000000000000000000e+00
2.262634590265851323e-22 2.544075580732937764e-19 -1.363794561951222359e-05 6.701849226497939068e-05 -3.592751187467430616e-04 8.886230141290821878e-04 -2.714988299132287510e-04 3.202207582324864427e-03 -2.141883035656166542e-02 2.848326786005888483e-02 1.641446877073968885e-02 4.025340394842547020e-01 0.000000000000000000e+00 0.000000000000000000e+00 0.000000000000000000e+00 0.000000000000000000e+00 0.000000000000000000e+00 0.000000000000000000e+00 0.000000000000000000e+00 0.000000000000000000e+00 0.000000000000000000e+00 0.000000000000000000e+00 0.000000000000000000e+00 0.000000000000000000e+00 0.000000000000000000e+00 0.000000000000000000e+00 0.000000000000000000e+00 0.000000000000000000e+00 0.000000000000000000e+00 0.000000000000000000e+00 0.000000000000000000e+00 0.000000000000000000e+00
1.250471244178550157e-22 3.259138054626384851e-19 8.751102143783299431e-06 -4.285610848394742235e-05 2.295772904582004477e-04 -4.337685125563962092e-04 9.384048803921413466e-04 -3.461450982888185368e-03 9.978724433731635257e-03 -1.578420927920467023e-02 3.585933431585597991e-02 2.364432195729813599e-02 4.247313816595073566e-01 0.000000000000000000e+00 0.000000000000000000e+00 0.000000000000000000e+00 0.000000000000000000e+00 0.000000000000000000e+00 0.000000000000000000e+00 0.000000000000000000e+00 0.000000000000000000e+00 0.000000000000000000e+00 0.000000000000000000e+00 0.000000000000000000e+00 0.000000000000000000e+00 0.000000000000000000e+00 0.000000000000000000e+00 0.000000000000000000e+00 0.000000000000000000e+00 0.000000000000000000e+00 0.000000000000000000e+00 0.000000000000000000e+00
8.821999013758623812e-22 -4.641603255202066557e-19 2.648732555893257844e-06 -1.296346706867879360e-05 6.947562410345222165e-05 2.290017083747706780e-04 -4.873071300729835543e-04 -1.926388395019234786e-03 2.204361889291281840e-03 1.657740921995860817e-02 -1.047352588166509252e-02 4.279359723869017446e-02 3.220987929628998936e-02 4.398807938167501042e-01 0.000000000000000000e+00 0.000000000000000000e+00 0.000000000000000000e+00 0.000000000000000000e+00 0.000000000000000000e+00 0.000000000000000000e+00 0.000000000000000000e+00 0.000000000000000000e+00 0.000000000000000000e+00 0.000000000000000000e+00 0.000000000000000000e+00 0.000000000000000000e+00 0.000000000000000000e+00 0.000000000000000000e+00 0.000000000000000000e+00 0.000000000000000000e+00 0.000000000000000000e+00 0.000000000000000000e+00
5.012207453111219503e-21 2.030579006522172734e-19 4.977617061995289494e-06 -2.452419952534038998e-05 1.307072595066364562e-04 8.509019640625004207e-05 2.883348811947995371e-04 -3.255375920892979950e-03 3.424127287231980288e-03 8.199414844279852982e-03 2.459743258668559487e-02 -6.055480372064228622e-03 5.419867006809524212e-02 4.058347243128627296e-02 4.814734620534664722e-01 0.000000000000000000e+00 0.000000000000000000e+00 0.000000000000000000e+00 0.000000000000000000e+00 0.000000000000000000e+00 0.000000000000000000e+00 0.000000000000000000e+00 0.000000000000000000e+00 0.000000000000000000e+00 0.000000000000000000e+00 0.000000000000000000e+00 0.000000000000000000e+00 0.000000000000000000e+00 0.000000000000000000e+00 0.000000000000000000e+00 0.000000000000000000e+00 0.000000000000000000e+00
2.509631296835839332e-21 -3.199920433607486020e-20 -5.527134018864192496e-06 2.705842034179992858e-05 -1.452647796839864924e-04 9.568253970777843779e-05 5.282952498968630458e-05 2.331183746719667996e-03 -6.774152015670193740e-03 -1.943983190153295492e-03 1.759632483078407261e-03 1.252627243631971449e-02 -6.730322738859859967e-03 3.312924985495609154e-02 3.002478277373269236e-02 2.673423703985668975e-01 0.000000000000000000e+00 0.000000000000000000e+00 0.000000000000000000e+00 0.000000000000000000e+00 0.000000000000000000e+00 0.000000000000000000e+00 0.000000000000000000e+00 0.000000000000000000e+00 0.000000000000000000e+00 0.000000000000000000e+00 0.000000000000000000e+00 0.000000000000000000e+00 0.000000000000000000e+00 0.000000000000000000e+00 0.000000000000000000e+00 0.000000000000000000e+00
-1.358617987017224067e-20 -3.304040009696414129e-19 1.777889445055817664e-06 -8.739147182832847000e-06 4.631396937226989538e-05 -1.963381430403859354e-04 9.165977218605587202e-05 -9.499234234498814744e-05 3.325644931122636455e-03 -7.869341913843084721e-03 -3.349540995506486082e-03 -1.576296473650141928e-03 1.411035654899546292e-02 -1.429309460718861287e-02 2.695999561356794347e-02 -3.012120621371842250e-02 6.368169814341546608e-01 0.000000000000000000e+00 0.000000000000000000e+00 0.000000000000000000e+00 0.000000000000000000e+00 0.000000000000000000e+00 0.000000000000000000e+00 0.000000000000000000e+00 0.000000000000000000e+00 0.000000000000000000e+00 0.000000000000000000e+00 0.000000000000000000e+00 0.000000000000000000e+00 0.000000000000000000e+00 0.000000000000000000e+00 0.000000000000000000e+00
-6.611146137485919004e-21 3.407695839687913047e-19 2.405148168739866748e-07 -9.828217126099981077e-07 6.299913674726395838e-06 4.726453899902007222e-05 -2.232582139348619277e-04 -9.661306471616120002e-05 5.411263628037521652e-04 3.682330812922992528e-03 -8.959525263367611875e-03 -5.374029795796072921e-03 -9.084514903766220196e-04 1.022098296841346052e-02 -1.709050139484985867e-02 -7.917676489103306695e-03 7.674159996752767665e-02 6.240639940327088464e-01 0.000000000000000000e+00 0.000000000000000000e+00 0.000000000000000000e+00 0.000000000000000000e+00 0.000000000000000000e+00 0.000000000000000000e+00 0.000000000000000000e+00 0.000000000000000000e+00 0.000000000000000000e+00 0.000000000000000000e+00 0.000000000000000000e+00 0.000000000000000000e+00 0.000000000000000000e+00 0.000000000000000000e+00
-7.534129027264484102e-21 -4.048557598298926949e-19 9.035399069822798951e-07 -4.344707178858225302e-06 2.403700031395909474e-05 5.560791096469450301e-06 5.539113670670787619e-05 -5.365605992381201157e-04 7.132520312370277697e-04 9.503146296595101419e-04 3.977152573080833947e-03 -1.048230888465417378e-02 -4.932725955594157406e-03 -3.745930056891457870e-03 7.367706571610322351e-03 -3.836857831264902513e-02 7.951247368943652194e-02 7.447561863383847514e-02 6.127248665954867501e-01 0.000000000000000000e+00 0.000000000000000000e+00 0.000000000000000000e+00 0.000000000000000000e+00 0.000000000000000000e+00 0.000000000000000000e+00 0.000000000000000000e+00 0.000000000000000000e+00 0.000000000000000000e+00 0.000000000000000000e+00 0.000000000000000000e+00 0.000000000000000000e+00 0.000000000000000000e+00
4.204815252428156063e-21 -1.143903034976071167e-20 1.062404511476336194e-07 -5.068953909033152945e-07 3.090557885024661059e-06 1.854967471681899087e-05 4.726116836772327640e-07 -1.352884167627462853e-04 -4.876299137079485521e-05 9.800294506076244472e-04 9.836955543109716146e-04 3.456229547273588325e-03 -1.048243999633795796e-02 -7.156771606456095551e-03 -5.402932518756988801e-03 -1.117603911586452850e-02 8.391429241336715097e-03 7.780338382121067264e-02 7.224661027293666216e-02 6.020238332095565470e-01 0.000000000000000000e+00 0.000000000000000000e+00 0.000000000000000000e+00 0.000000000000000000e+00 0.000000000000000000e+00 0.000000000000000000e+00 0.000000000000000000e+00 0.000000000000000000e+00 0.000000000000000000e+00 0.000000000000000000e+00 0.000000000000000000e+00 0.000000000000000000e+00
-9.546647044587977702e-21 3.030091644779664584e-20 4.928039661121821611e-07 -2.402185608311629293e-06 1.317046277050563440e-05 -3.905155624184839812e-06 1.626038014582913225e-05 -2.489437511675356217e-04 5.031110703092640411e-04 2.718121488111769420e-04 1.116120880369780508e-03 3.954307257474416358e-04 4.205546319215803207e-03 -1.269358832813925926e-02 -8.970462302837659690e-03 -2.206341166009120544e-02 4.960807572298952389e-02 7.487318684939392281e-03 7.614266267405650490e-02 7.011487931942596286e-02 5.946588411773270355e-01 0.000000000000000000e+00 0.000000000000000000e+00 0.000000000000000000e+00 0.000000000000000000e+00 0.000000000000000000e+00 0.000000000000000000e+00 0.000000000000000000e+00 0.000000000000000000e+00 0.000000000000000000e+00 0.000000000000000000e+00 0.000000000000000000e+00
-3.133368283747272415e-21 3.220187224566479112e-19 3.124632919702917063e-07 -1.529635233958571037e-06 8.314835926579426949e-06 8.784660828871542409e-06 -7.373021079003486690e-06 -1.903329933378010994e-04 2.756534619950047507e-04 8.071249384625107113e-04 3.519256186691766008e-04 6.279462303467506744e-04 9.412538646964512369e-04 2.456706993290421609e-03 -1.414994808687867513e-02 -2.230698054262484492e-02 2.167661704577813347e-02 4.777952224580832991e-02 6.590029411637990907e-03 7.432294809706309346e-02 6.863041274766418232e-02 5.843150598591994038e-01 0.000000000000000000e+00 0.000000000000000000e+00 0.000000000000000000e+00 0.000000000000000000e+00 0.000000000000000000e+00 0.000000000000000000e+00 0.000000000000000000e+00 0.000000000000000000e+00 0.000000000000000000e+00 0.000000000000000000e+00
-1.115340619070851818e-19 1.969768377911897059e-19 2.533515195509744247e-07 -1.298958549512017715e-06 6.809789112585978136e-06 4.491692970296510907e-06 7.207986426434660838e-06 -1.592509774046631948e-04 2.093308021951223983e-04 4.689538949205366365e-04 8.407249825357705677e-04 -1.332957967695668454e-04 1.046848709537715003e-03 -5.795513234541203483e-04 8.276582733434444464e-04 -2.481013592735126921e-02 1.370040990150433145e-02 2.056840979395424193e-02 4.591593407465057591e-02 5.599562892216180046e-03 7.271635562389704155e-02 6.599399377677686584e-02 5.772969219876888936e-01 0.000000000000000000e+00 0.000000000000000000e+00 0.000000000000000000e+00 0.000000000000000000e+00 0.000000000000000000e+00 0.000000000000000000e+00 0.000000000000000000e+00 0.000000000000000000e+00 0.000000000000000000e+00
2.723158872647283430e-19 -1.067855903935768725e-19 1.001502491395835355e-07 -5.188994360450373638e-07 2.422874572044615559e-06 2.448964059533343123e-06 8.387786620922847832e-07 -7.008494103159668294e-05 6.841728692540245628e-05 2.514581432100367422e-04 3.717839173551076089e-04 3.181633496321160611e-04 1.259346058731125487e-04 -3.164016134757752880e-04 -1.658768031070670477e-03 -9.737074409808864003e-03 3.264265954301541570e-03 1.219595512568308164e-02 1.859398177874397109e-02 4.216916022747358578e-02 4.539884120602339854e-03 6.717354384386430011e-02 6.132558969242754565e-02 5.482373184550805023e-01 0.000000000000000000e+00 0.000000000000000000e+00 0.000000000000000000e+00 0.000000000000000000e+00 0.000000000000000000e+00 0.000000000000000000e+00 0.000000000000000000e+00 0.000000000000000000e+00
-1.324753736090512422e-19 -2.087975941592289546e-20 2.353678975023294390e-07 -1.287015580042666214e-06 6.347131167537500695e-06 -2.563081596161945306e-06 2.910271998537998768e-07 -1.192142252608743261e-04 2.785209658686950657e-04 1.775141925093339488e-04 1.902931682807024855e-04 -2.253326491270493301e-04 7.251669639967720177e-04 -1.547192172613560566e-03 -1.803614083383181044e-03 -1.497840052978777030e-02 3.580053130588359278e-02 2.445066711835044548e-03 1.167900745121056363e-02 1.802225863568265515e-02 4.369038590893366963e-02 2.090035859592139292e-03 6.897811101204018303e-02 5.730677594076526160e-02 6.418748505648115277e-01 0.000000000000000000e+00 0.000000000000000000e+00 0.000000000000000000e+00 0.000000000000000000e+00 0.000000000000000000e+00 0.000000000000000000e+00 0.000000000000000000e+00
-4.218700767682629799e-20 -2.050995982162635130e-19 2.427400682174616243e-07 -1.216437091388827180e-06 5.883450906628092800e-06 1.699103121252033125e-06 -7.255149912019510561e-06 -1.337368579489602700e-04 2.380324142968015370e-04 4.355544180614880404e-04 1.318501278608151224e-04 -4.078833208221344813e-04 1.525018402232025737e-04 -9.364427752397114051e-04 -3.125468506998064361e-03 -1.540694806665352315e-02 2.753195824595085217e-02 3.607311853974452115e-02 2.062164544619500117e-03 1.182148826880321038e-02 1.966206190361548256e-02 4.431531265780716544e-02 2.905969315925828900e-03 7.261947517654770978e-02 9.418952767379695779e-02 5.881288040189611710e-01 0.000000000000000000e+00 0.000000000000000000e+00 0.000000000000000000e+00 0.000000000000000000e+00 0.000000000000000000e+00 0.000000000000000000e+00
6.920549206880637116e-20 -1.724156987550551892e-19 2.779693399336562321e-07 -1.284396239691883354e-06 7.140339715523576711e-06 2.429461076517808641e-06 -2.376344699389019318e-07 -1.514778211146410839e-04 2.512415244499521913e-04 4.162086205353947668e-04 4.287350906503359458e-04 -4.828840134391576035e-04 -3.433302302442824150e-05 -1.585558695660120587e-03 -2.629483778296319487e-03 -1.724003936877305937e-02 2.864752209935728100e-02 2.862138977558682795e-02 3.638006125903965604e-02 1.924143825639706030e-03 1.323936049707224137e-02 2.045070710611510134e-02 4.710861247649696798e-02 3.856881856674124372e-03 1.058960423123866401e-01 7.980571877603680198e-02 5.483370677387521264e-01 0.000000000000000000e+00 0.000000000000000000e+00 0.000000000000000000e+00 0.000000000000000000e+00 0.000000000000000000e+00
-8.235325417480923851e-20 2.143260342354324352e-19 2.517692907249992190e-07 -1.249457718658657902e-06 6.937015593010100818e-06 3.342959450764321962e-06 2.797716118709739006e-07 -1.451764278976880199e-04 2.403902288806806240e-04 4.298266630593266971e-04 4.061443149361403104e-04 -1.748970586200445580e-04 -1.010960223227532471e-04 -1.801286409236376156e-03 -3.253278194200153860e-03 -1.691859480537285035e-02 2.688898037974387159e-02 2.910909344327248030e-02 2.865895234950303558e-02 3.573044603597731045e-02 2.801439041578663008e-03 1.358885113963358843e-02 2.220340000893830310e-02 4.945541222064357006e-02 2.526520348726006213e-02 8.952386965838372845e-02 6.590234555896276603e-02 4.971229424144694709e-01 0.000000000000000000e+00 0.000000000000000000e+00 0.000000000000000000e+00 0.000000000000000000e+00
-4.222787678522683931e-20 -1.160663260810243666e-19 3.163018118237414453e-07 -1.517347142888053244e-06 8.277593373291749224e-06 2.776392526210761278e-06 -1.911036239944048191e-07 -1.747757377962286317e-04 2.967910287386109087e-04 4.840199895699990522e-04 4.832466664297295445e-04 -2.323346324743984855e-04 2.786666163270824195e-04 -2.169994765444325287e-03 -4.001013925421898279e-03 -2.030094490271086918e-02 3.281429064240807408e-02 3.113004891827212545e-02 3.317159683705164092e-02 3.229584388078232671e-02 4.128358595243339368e-02 3.128744840672864364e-03 1.678517038008328632e-02 2.657475778675604319e-02 8.250830567553610329e-02 1.713085273758705937e-02 8.581789248407385717e-02 5.410475259989765834e-02 5.625801137085955084e-01 0.000000000000000000e+00 0.000000000000000000e+00 0.000000000000000000e+00
-4.234616534252180768e-20 -1.231684665921089659e-19 3.583441840475652426e-07 -1.796775990832050878e-06 9.642346992886596362e-06 3.886261226241028433e-06 -4.480529111247282121e-07 -2.050719704054095678e-04 3.459621052647830070e-04 5.969306468741958837e-04 5.562239352711532796e-04 -2.670324599601037511e-04 2.762067513336477812e-04 -2.165741972332773432e-03 -4.867541195098932204e-03 -2.431769802127578539e-02 3.761322781413714567e-02 3.877482201052694089e-02 3.676234442747124131e-02 3.864476289830182792e-02 3.919518872708695201e-02 4.497071843029487592e-02 6.303677457571900226e-03 2.230229535510758199e-02 6.060709268051571452e-02 7.342225758349812947e-02 1.443459025989671414e-02 8.109682585191348159e-02 9.031688374867116731e-02 4.379247746103130945e-01 0.000000000000000000e+00 0.000000000000000000e+00
2.863769808734833471e-19 -9.282064098906046103e-20 5.451419470414052915e-07 -2.702231557720336043e-06 1.449348650508456172e-05 5.477435035482931170e-06 -4.530952594643572871e-07 -3.095582941585730218e-04 5.196705852067717846e-04 8.895394419945496390e-04 8.749498748483530231e-04 -4.162676908015260123e-04 4.499900457740535400e-04 -3.302386624154889268e-03 -6.766467663157754373e-03 -3.684879263645431807e-02 5.639024810049042546e-02 5.676080786470740630e-02 5.772433192132844088e-02 5.480612294515616045e-02 5.924998825807763214e-02 5.613832585897670507e-02 6.503350289258603978e-02 1.454836432122924572e-02 7.401038673156859482e-02 6.757982260605700786e-02 8.538235490429638141e-02 1.126518315990256494e-02 1.446838544418947714e-01 4.176128206189385489e-02 4.673516360011444881e-01 0.000000000000000000e+00
-1.021000463969623984e-24 -2.154631072911373546e-19 0.000000000000000000e+00 0.000000000000000000e+00 0.000000000000000000e+00 0.000000000000000000e+00 0.000000000000000000e+00 0.000000000000000000e+00 0.000000000000000000e+00 0.000000000000000000e+00 0.000000000000000000e+00 0.000000000000000000e+00 0.000000000000000000e+00 0.000000000000000000e+00 0.000000000000000000e+00 0.000000000000000000e+00 0.000000000000000000e+00 0.000000000000000000e+00 0.000000000000000000e+00 0.000000000000000000e+00 0.000000000000000000e+00 0.000000000000000000e+00 0.000000000000000000e+00 0.000000000000000000e+00 0.000000000000000000e+00 0.000000000000000000e+00 0.000000000000000000e+00 0.000000000000000000e+00 0.000000000000000000e+00 0.000000000000000000e+00 0.000000000000000000e+00 0.000000000000000000e+00
-2.913511546453329742e-23 -6.484265649021455772e-19 1.014565642758388231e-01 0.000000000000000000e+00 0.000000000000000000e+00 0.000000000000000000e+00 0.000000000000000000e+00 0.000000000000000000e+00 0.000000000000000000e+00 0.000000000000000000e+00 0.000000000000000000e+00 0.000000000000000000e+00 0.000000000000000000e+00 0.000000000000000000e+00 0.000000000000000000e+00 0.000000000000000000e+00 0.000000000000000000e+00 0.000000000000000000e+00 0.000000000000000000e+00 0.000000000000000000e+00 0.000000000000000000e+00 0.000000000000000000e+00 0.000000000000000000e+00 0.000000000000000000e+00 0.000000000000000000e+00 0.000000000000000000e+00 0.000000000000000000e+00 0.000000000000000000e+00 0.000000000000000000e+00 0.000000000000000000e+00 0.000000000000000000e+00 0.000000000000000000e+00
-6.593540885633466496e-23 3.741169928623010456e-19 -1.887840169744900085e-02 9.312535371520158645e-02 0.000000000000000000e+00 0.000000000000000000e+00 0.000000000000000000e+00 0.000000000000000000e+00 0.000000000000000000e+00 0.000000000000000000e+00 0.000000000000000000e+00 0.000000000000000000e+00 0.000000000000000000e+00 0.000000000000000000e+00 0.000000000000000000e+00 0.000000000000000000e+00 0.000000000000000000e+00 0.000000000000000000e+00 0.000000000000000000e+00 0.000000000000000000e+00 0.000000000000000000e+00 0.000000000000000000e+00 0.000000000000000000e+00 0.000000000000000000e+00 0.000000000000000000e+00 0.000000000000000000e+00 0.000000000000000000e+00 0.000000000000000000e+00 0.000000000000000000e+00 0.000000000000000000e+00 0.000000000000000000e+00 0.000000000000000000e+00
-1.073052679090612749e-22 3.647161070975083777e-19 5.483765306167933708e-03 -2.702247744471091701e-02 1.451265996642726874e-01 0.000000000000000000e+00 0.000000000000000000e+00 0.000000000000000000e+00 0.000000000000000000e+00 0.000000000000000000e+00 0.000000000000000000e+00 0.000000000000000000e+00 0.000000000000000000e+00 0.000000000000000000e+00 0.000000000000000000e+00 0.000000000000000000e+00 0.000000000000000000e+00 0.000000000000000000e+00 0.000000000000000000e+00 0.000000000000000000e+00 0.000000000000000000e+00 0.000000000000000000e+00 0.000000000000000000e+00 0.000000000000000000e+00 0.000000000000000000e+00 0.000000000000000000e+00 0.000000000000000000e+00 0.000000000000000000e+00 0.000000000000000000e+00 0.000000000000000000e+00 0.000000000000000000e+00 0.000000000000000000e+00
3.544544306790413619e-23 -4.007882553197898008e-19 1.882130524735078068e-04 -9.341776441301595946e-04 5.067342098618183785e-03 1.986861825372563950e-01 0.000000000000000000e+00 0.000000000000000000e+00 0.000000000000000000e+00 0.000000000000000000e+00 0.000000000000000000e+00 0.000000000000000000e+00 0.000000000000000000e+00 0.000000000000000000e+00 0.000000000000000000e+00 0.000000000000000000e+00 0.000000000000000000e+00 0.000000000000000000e+00 0.000000000000000000e+00 0.000000000000000000e+00 0.000000000000000000e+00 0.000000000000000000e+00 0.000000000000000000e+00 0.000000000000000000e+00 0.000000000000000000e+00 0.000000000000000000e+00 0.000000000000000000e+00 0.000000000000000000e+00 0.000000000000000000e+00 0.000000000000000000e+00 0.000000000000000000e+00 0.000000000000000000e+00
1.563729885544305525e-22 7.432676086056613036e-19 3.719008078856031289e-04 -1.825638591717191174e-03 9.809661354462125352e-03 1.638307273200613479e-02 2.252297197652253224e-01 0.000000000000000000e+00 0.000000000000000000e+00 0.000000000000000000e+00 0.000000000000000000e+00 0.000000000000000000e+00 0.000000000000000000e+00 0.000000000000000000e+00 0.000000000000000000e+00 0.000000000000000000e+00 0.000000000000000000e+00 0.000000000000000000e+00 0.000000000000000000e+00 0.000000000000000000e+00 0.000000000000000000e+00 0.000000000000000000e+00 0.000000000000000000e+00 0.000000000000000000e+00 0.000000000000000000e+00 0.000000000000000000e+00 0.000000000000000000e+00 0.000000000000000000e+00 0.000000000000000000e+00 0.000000000000000000e+00 0.000000000000000000e+00 0.000000000000000000e+00
3.497912811350375853e-25 1.191953584525666202e-19 -4.455624778896161587e-04 2.192737114714131148e-03 -1.175339268991036287e-02 1.058936322041827138e-03 8.276860087264827776e-03 2.161469072784946710e-01 0.000000000000000000e+00 0.000000000000000000e+00 0.000000000000000000e+00 0.000000000000000000e+00 0.000000000000000000e+00 0.000000000000000000e+00 0.000000000000000000e+00 0.000000000000000000e+00 0.000000000000000000e+00 0.000000000000000000e+00 0.000000000000000000e+00 0.000000000000000000e+00 0.000000000000000000e+00 0.000000000000000000e+00 0.000000000000000000e+00 0.000000000000000000e+00 0.000000000000000000e+00 0.000000000000000000e+00 0.000000000000000000e+00 0.000000000000000000e+00 0.000000000000000000e+00 0.000000000000000000e+00 0.000000000000000000e+00 0.000000000000000000e+00
-2.082156457478328781e-22 -8.888164215735809285e-20 1.139406289344749990e-04 -5.570036237446710729e-04 2.990346087482372538e-03 -1.302990017719285291e-02 8.583075890645237155e-04 1.288175312998798665e-03 2.351913164765178921e-01 0.000000000000000000e+00 0.000000000000000000e+00 0.000000000000000000e+00 0.000000000000000000e+00 0.000000000000000000e+00 0.000000000000000000e+00 0.000000000000000000e+00 0.000000000000000000e+00 0.000000000000000000e+00 0.000000000000000000e+00 0.000000000000000000e+00 0.000000000000000000e+00 0.000000000000000000e+00 0.000000000000000000e+00 0.000000000000000000e+00 0.000000000000000000e+00 0.000000000000000000e+00 0.000000000000000000e+00 0.000000000000000000e+00 0.000000000000000000e+00 0.000000000000000000e+00 0.000000000000000000e+00 0.000000000000000000e+00
-2.716519515337895974e-22 2.073519280137274963e-19 1.331688863571160497e-06 -6.623217736967840523e-06 4.295476458178779751e-05 3.817410171533065343e-03 -1.345737431882997395e-02 -4.429549856012657966e-03 1.055317388030050513e-02 2.559801914428374570e-01 0.000000000000000000e+00 0.000000000000000000e+00 0.000000000000000000e+00 0.000000000000000000e+00 0.000000000000000000e+00 0.000000000000000000e+00 0.000000000000000000e+00 0.000000000000000000e+00 0.000000000000000000e+00 0.000000000000000000e+00 0.000000000000000000e+00 0.000000000000000000e+00 0.000000000000000000e+00 0.000000000000000000e+00 0.000000000000000000e+00 0.000000000000000000e+00 0.000000000000000000e+00 0.000000000000000000e+00 0.000000000000000000e+00 0.000000000000000000e+00 0.000000000000000000e+00 0.000000000000000000e+00
6.643080812284600619e-23 -1.302104799148265182e-19 2.170169080037645339e-05 -1.064368993333711291e-04 5.727823237398906682e-04 4.144281480066032267e-04 4.529221852823645846e-03 -1.769455922856495722e-02 4.018102250946216890e-03 2.010741954964526124e-02 2.773849182265029079e-01 0.000000000000000000e+00 0.000000000000000000e+00 0.000000000000000000e+00 0.000000000000000000e+00 0.000000000000000000e+00 0.000000000000000000e+00 0.000000000000000000e+00 0.000000000000000000e+00 0.000000000000000000e+00 0.000000000000000000e+00 0.000000000000000000e+00 0.000000000000000000e+00 0.000000000000000000e+00 0.000000000000000000e+00 0.000000000000000000e+00 0.000000000000000000e+00 0.000000000000000000e+00 0.000000000000000000e+00 0.000000000000000000e+00 0.000000000000000000e+00 0.000000000000000000e+00
2.237058875079304571e-22 3.441881185905118726e-19 -5.339653480850789231e-06 2.631362029873685141e-05 -1.411466229348652646e-04 4.161402910690835052e-04 2.757959886654629315e-04 5.504173251190368210e-04 -1.026867766685153442e-02 1.239839814661743492e-02 2.962277154339935242e-02 2.985736000983415517e-01 0.000000000000000000e+00 0.000000000000000000e+00 0.000000000000000000e+00 0.000000000000000000e+00 0.000000000000000000e+00 0.000000000000000000e+00 0.000000000000000000e+00 0.000000000000000000e+00 0.000000000000000000e+00 0.000000000000000000e+00 0.000000000000000000e+00 0.000000000000000000e+00 0.000000000000000000e+00 0.000000000000000000e+00 0.000000000000000000e+00 0.000000000000000000e+00 0.000000000000000000e+00 0.000000000000000000e+00 0.000000000000000000e+00 0.000000000000000000e+00
5.311264270735727409e-22 2.558351702587561843e-21 7.624638228727712255e-06 -3.733557728622090239e-05 2.000197776653523177e-04 -1.977866209088221942e-04 4.319420170137826275e-04 -3.455232592009023756e-03 8.286267774105699618e-03 -3.074985283376162511e-03 2.057982043939492189e-02 3.841930115391169187e-02 3.218862191395333028e-01 0.000000000000000000e+00 0.000000000000000000e+00 0.000000000000000000e+00 0.000000000000000000e+00 0.000000000000000000e+00 0.000000000000000000e+00 0.000000000000000000e+00 0.000000000000000000e+00 0.000000000000000000e+00 0.000000000000000000e+00 0.000000000000000000e+00 0.000000000000000000e+00 0.000000000000000000e+00 0.000000000000000000e+00 0.000000000000000000e+00 0.000000000000000000e+00 0.000000000000000000e+00 0.000000000000000000e+00 0.000000000000000000e+00
3.159581597612872088e-21 -2.422916518720336676e-19 4.450822025814103245e-06 -2.186461598189604747e-05 1.168167764377516047e-04 2.121750750641900464e-04 -2.167988499388810828e-04 -3.054634602860874584e-03 3.344915463489529263e-03 1.637920333662449407e-02 4.540590969434311203e-03 2.867104914142988570e-02 5.095837573074714355e-02 3.461275974689070889e-01 0.000000000000000000e+00 0.000000000000000000e+00 0.000000000000000000e+00 0.000000000000000000e+00 0.000000000000000000e+00 0.000000000000000000e+00 0.000000000000000000e+00 0.000000000000000000e+00 0.000000000000000000e+00 0.000000000000000000e+00 0.000000000000000000e+00 0.000000000000000000e+00 0.000000000000000000e+00 0.000000000000000000e+00 0.000000000000000000e+00 0.000000000000000000e+00 0.000000000000000000e+00 0.000000000000000000e+00
4.430907085695588812e-21 1.126723384023314293e-19 3.906054937106344221e-07 -2.011068408386190978e-06 1.019303420372739732e-05 1.017604754594774548e-04 2.091242683958464943e-04 -8.972460447016295318e-04 -1.217305211461599222e-03 4.223741327238760002e-03 1.646650050160373968e-02 2.425952793842925739e-03 3.097897412884491677e-02 4.228120200251362509e-02 3.201082507282886347e-01 0.000000000000000000e+00 0.000000000000000000e+00 0.000000000000000000e+00 0.000000000000000000e+00 0.000000000000000000e+00 0.000000000000000000e+00 0.000000000000000000e+00 0.000000000000000000e+00 0.000000000000000000e+00 0.000000000000000000e+00 0.000000000000000000e+00 0.000000000000000000e+00 0.000000000000000000e+00 0.000000000000000000e+00 0.000000000000000000e+00 0.000000000000000000e+00 0.000000000000000000e+00
-4.739186373186359494e-21 -1.913904210096550762e-19 -3.634508687841747839e-06 1.777526736170431421e-05 -9.572894440938518369e-05 -1.986166860997319838e-05 8.906601790513731074e-05 1.860364400564530531e-03 -3.881201061471371318e-03 -5.525643305554270475e-03 -2.346723330603033009e-04 9.463459482094271208e-03 1.547024999748619536e-03 1.996671206878924965e-02 3.805253496074263025e-02 2.037346627557578005e-01 0.000000000000000000e+00 0.000000000000000000e+00 0.000000000000000000e+00 0.000000000000000000e+00 0.000000000000000000e+00 0.000000000000000000e+00 0.000000000000000000e+00 0.000000000000000000e+00 0.000000000000000000e+00 0.000000000000000000e+00 0.000000000000000000e+00 0.000000000000000000e+00 0.000000000000000000e+00 0.000000000000000000e+00 0.000000000000000000e+00 0.000000000000000000e+00
-1.433798584054231820e-20 -9.791382874517574514e-20 1.563960524979966012e-06 -7.587877995400599707e-06 4.075838187648177626e-05 -1.358005848840571962e-04 -3.719843911312396687e-05 -1.254433538137422321e-04 2.971093276188706191e-03 -4.548992023041004834e-03 -7.199697095353087967e-03 -3.967018071285994575e-03 1.100383526190527178e-02 -6.495958673212334430e-03 1.334712838021280892e-02 -2.841822147881884614e-02 5.554865651516671665e-01 0.000000000000000000e+00 0.000000000000000000e+00 0.000000000000000000e+00 0.000000000000000000e+00 0.000000000000000000e+00 0.000000000000000000e+00 0.000000000000000000e+00 0.000000000000000000e+00 0.000000000000000000e+00 0.000000000000000000e+00 0.000000000000000000e+00 0.000000000000000000e+00 0.000000000000000000e+00 0.000000000000000000e+00 0.000000000000000000e+00
-9.098044399942368456e-21 7.235591100798779140e-20 6.457120664698091070e-07 -2.964864097107166476e-06 1.709851387729765257e-05 4.089274422418063502e-05 -1.523314682888694761e-04 -3.461854455719362198e-04 7.929699862505054479e-04 3.444450549345596298e-03 -5.236048306021296936e-03 -9.574570185079780624e-03 -3.198904132110136876e-03 6.368851668658946814e-03 -1.009728500522445206e-02 -2.556880603614218248e-02 1.016377801296958761e-01 5.404595700786426482e-01 0.000000000000000000e+00 0.000000000000000000e+00 0.000000000000000000e+00 0.000000000000000000e+00 0.000000000000000000e+00 0.000000000000000000e+00 0.000000000000000000e+00 0.000000000000000000e+00 0.000000000000000000e+00 0.000000000000000000e+00 0.000000000000000000e+00 0.000000000000000000e+00 0.000000000000000000e+00 0.000000000000000000e+00
-3.932519505862741041e-21 -3.300138033047065334e-19 7.768664581945964064e-07 -3.733609919875424866e-06 2.079920263342637391e-05 1.372909729243124766e-05 4.460526641819598692e-05 -4.974356423517079136e-04 5.469418808780256939e-04 1.251228068184935625e-03 3.677594382348588729e-03 -6.668339556503340496e-03 -9.192392269945594274e-03 -6.578920417566123426e-03 3.200154502528707208e-03 -3.632170800954777345e-02 6.788615356463094386e-02 9.855754993282278553e-02 5.269232248795262530e-01 0.000000000000000000e+00 0.000000000000000000e+00 0.000000000000000000e+00 0.000000000000000000e+00 0.000000000000000000e+00 0.000000000000000000e+00 0.000000000000000000e+00 0.000000000000000000e+00 0.000000000000000000e+00 0.000000000000000000e+00 0.000000000000000000e+00 0.000000000000000000e+00 0.000000000000000000e+00
-1.420700613393068838e-21 6.029782783027540571e-21 3.311106204127121754e-07 -1.605255412483819445e-06 9.049424113015258275e-06 1.283762358197705972e-05 8.507017272824331626e-06 -2.323413105335661501e-04 2.126753674987863182e-04 9.173123884183933575e-04 1.342389846539302021e-03 2.953468865222787405e-03 -6.255184649027670588e-03 -1.205309872233066570e-02 -8.793148206078987839e-03 -1.994269062277411950e-02 3.149477127640055302e-02 6.577858628447301459e-02 9.567567924544384539e-02 5.150687537732547838e-01 0.000000000000000000e+00 0.000000000000000000e+00 0.000000000000000000e+00 0.000000000000000000e+00 0.000000000000000000e+00 0.000000000000000000e+00 0.000000000000000000e+00 0.000000000000000000e+00 0.000000000000000000e+00 0.000000000000000000e+00 0.000000000000000000e+00 0.000000000000000000e+00
-9.129132483824160661e-21 1.850124603562137278e-19 5.466100185200821552e-07 -2.667727034891859109e-06 1.459049921960320787e-05 1.298831981190836130e-06 9.194272032534563744e-06 -2.923691636851844444e-04 5.363699537339256841e-04 6.188805096383742915e-04 1.060106369031163596e-03 6.272165421397379349e-04 3.802082116582734383e-03 -8.826968079316786786e-03 -1.418099330358180837e-02 -2.863118795379020198e-02 5.013571925217298608e-02 2.982089699816155293e-02 6.361199829196223510e-02 9.270350366151997035e-02 5.053786851516615108e-01 0.000000000000000000e+00 0.000000000000000000e+00 0.000000000000000000e+00 0.000000000000000000e+00 0.000000000000000000e+00 0.000000000000000000e+00 0.000000000000000000e+00 0.000000000000000000e+00 0.000000000000000000e+00 0.000000000000000000e+00 0.000000000000000000e+00
-5.823815702824678030e-20 3.524479887722342315e-19 3.730994541049282747e-07 -1.855823747899395191e-06 9.962377113206182211e-06 9.173855728190711878e-06 -2.210728513613943300e-06 -2.297313109745401181e-04 3.220590796675466220e-04 8.710147880084792484e-04 6.979080888156375838e-04 4.285809297650692629e-04 1.265742766566223297e-03 1.647702527644241471e-03 -1.074550564518793154e-02 -2.999743383803635255e-02 2.394543562345800153e-02 4.796545158315501656e-02 2.815518359071778401e-02 6.141446007938239360e-02 9.048344720276625675e-02 4.938161695818720220e-01 0.000000000000000000e+00 0.000000000000000000e+00 0.000000000000000000e+00 0.000000000000000000e+00 0.000000000000000000e+00 0.000000000000000000e+00 0.000000000000000000e+00 0.000000000000000000e+00 0.000000000000000000e+00 0.000000000000000000e+00
4.981734517064994484e-20 9.909065037300814272e-20 2.461992631978515913e-07 -1.264997768762910838e-06 6.483022103479655956e-06 4.701585369594374651e-06 5.999226119208051274e-06 -1.583216236249713289e-04 1.962555233930145270e-04 4.887550319804368588e-04 8.367128549372416417e-04 5.589491134013390913e-05 8.733524223779711229e-04 -6.068423002037352581e-04 -1.886783026761316203e-04 -2.407452636423861037e-02 1.223787592097096491e-02 2.202036737498007032e-02 4.484137221242062710e-02 2.541930623211947904e-02 5.856102977978540347e-02 8.467395390148138579e-02 4.775591140715093053e-01 0.000000000000000000e+00 0.000000000000000000e+00 0.000000000000000000e+00 0.000000000000000000e+00 0.000000000000000000e+00 0.000000000000000000e+00 0.000000000000000000e+00 0.000000000000000000e+00 0.000000000000000000e+00
1.573166165500743269e-19 -9.810416734292598604e-20 1.999010364212060682e-07 -1.069491757028638764e-06 5.162593996725276359e-06 7.289054515614594909e-07 8.340983951667407508e-07 -1.171424636719853529e-04 1.954267943076952831e-04 2.951884969078088930e-04 4.003579160152583309e-04 1.485258765026928188e-04 4.659679130978140130e-04 -1.033342012228780299e-03 -2.263551798259517880e-03 -1.548272906066557389e-02 2.058002374090320274e-02 1.123464935565544540e-02 2.110399925279519626e-02 4.362937114130482213e-02 2.557215373551460433e-02 5.619029406007278182e-02 8.483352721204691360e-02 4.787219206266267180e-01 0.000000000000000000e+00 0.000000000000000000e+00 0.000000000000000000e+00 0.000000000000000000e+00 0.000000000000000000e+00 0.000000000000000000e+00 0.000000000000000000e+00 0.000000000000000000e+00
-1.262874821642669290e-19 -1.191296727828384422e-19 3.082673028911469001e-07 -1.630191802637877418e-06 7.981756368340442532e-06 -1.185700294331828907e-06 -3.396480616589382884e-06 -1.615322014672798548e-04 3.401797913580289351e-04 3.587349101538642063e-04 2.170300948077142516e-04 -3.828702956933522890e-04 6.520801917347287657e-04 -1.696791614959995481e-03 -2.994919992076570166e-03 -1.959728869307117774e-02 4.219390660600359083e-02 1.997809970627886789e-02 1.030496634011949034e-02 2.022157816080515091e-02 4.452401111214843166e-02 2.381727940392914730e-02 5.622604713048214020e-02 8.181500835676902561e-02 5.567847332155702045e-01 0.000000000000000000e+00 0.000000000000000000e+00 0.000000000000000000e+00 0.000000000000000000e+00 0.000000000000000000e+00 0.000000000000000000e+00 0.000000000000000000e+00
1.942892152898438699e-21 -2.449895046258103593e-19 3.269063926900922956e-07 -1.583925439430756747e-06 8.124952420238498130e-06 2.530122710531480283e-06 -5.735526005360120050e-06 -1.792737777999640328e-04 3.098979674145183440e-04 5.452968355186897350e-04 3.164417655016634021e-04 -5.572124391902228899e-04 1.008956145457662876e-04 -1.517743878189951531e-03 -3.734381260865764045e-03 -2.054759408054929182e-02 3.563813679949923152e-02 4.223736817980366931e-02 1.978649353162527727e-02 1.011389615403326427e-02 2.184142988530708707e-02 4.453287418131515740e-02 2.580401624302816263e-02 5.814815355612852621e-02 1.258665897012656298e-01 4.952136733217272768e-01 0.000000000000000000e+00 0.000000000000000000e+00 0.000000000000000000e+00 0.000000000000000000e+00 0.000000000000000000e+00 0.000000000000000000e+00
1.062793787124163516e-20 -2.190073200159130249e-20 3.339617834137415711e-07 -1.586178398126127804e-06 8.813490998876839338e-06 3.490080683061040759e-06 -3.799820249158333855e-08 -1.859786745776862999e-04 3.082648396109457524e-04 5.264710688467722855e-04 5.240067276834521615e-04 -4.489168968324964461e-04 -7.624838938753394132e-05 -2.087531354526956512e-03 -3.594969342697128430e-03 -2.136452663624584941e-02 3.488892147900867630e-02 3.597941636004534094e-02 4.156218835342741225e-02 1.930556295092377556e-02 1.131119469232061414e-02 2.210303696839854837e-02 4.636539226640706834e-02 2.761481926722637523e-02 9.190229897201362963e-02 1.045014210869329441e-01 4.434151749234628292e-01 0.000000000000000000e+00 0.000000000000000000e+00 0.000000000000000000e+00 0.000000000000000000e+00 0.000000000000000000e+00
-8.545571702898643455e-20 1.094176364326448966e-19 3.548557493765708114e-07 -1.734862463491886431e-06 9.558617993707876231e-06 4.000017242454684217e-06 1.230309665476672515e-07 -2.008127685042026861e-04 3.362100099587091856e-04 5.778292928041150198e-04 5.589398481223727295e-04 -2.528126491101033869e-04 6.034799113524879418e-05 -2.492324543805317372e-03 -4.542260868020444806e-03 -2.336880234873999276e-02 3.741523833084808848e-02 3.830766973040752171e-02 3.897675292905380950e-02 4.406376415526934431e-02 2.283052944428543701e-02 1.218120669980542886e-02 2.573988084538382515e-02 5.192640071899733145e-02 6.099360510676463815e-02 7.850953558400897148e-02 9.439779355063063204e-02 4.154495882425252029e-01 0.000000000000000000e+00 0.000000000000000000e+00 0.000000000000000000e+00 0.000000000000000000e+00
-5.153333777559559840e-20 -1.450315561810063243e-19 4.065811977615259568e-07 -1.989303519637480714e-06 1.077245178924649094e-05 3.939252411861176681e-06 -3.614227732920080609e-07 -2.281931668917015917e-04 3.863626391850568916e-04 6.464574906417609648e-04 6.255481445891543108e-04 -3.005560919975069434e-04 3.384541914035943855e-04 -2.643015603169933565e-03 -5.310349121011978882e-03 -2.675446482244138446e-02 4.239885464505956797e-02 4.176874529247064094e-02 4.223030266642640446e-02 4.254187846571294562e-02 4.927893987642274765e-02 2.473480907506634546e-02 1.521974489657431165e-02 3.025739897797619787e-02 8.962391476124481615e-02 4.902756757253803888e-02 6.891713198379514904e-02 7.944769501973404646e-02 4.496323834766736693e-01 0.000000000000000000e+00 0.000000000000000000e+00 0.000000000000000000e+00
1.121201329398795336e-19 -1.367760459733717409e-19 5.354794358775471403e-07 -2.669366873697661459e-06 1.432110006999371293e-05 5.589973401867812594e-06 -5.552732158091740000e-07 -3.052354927154646747e-04 5.136593231807256394e-04 8.827233016323117638e-04 8.455629881257372728e-04 -4.040491038947043295e-04 4.276412371090291143e-04 -3.240145825206869681e-03 -6.954431099544558861e-03 -3.626570330587760432e-02 5.579103973442416098e-02 5.682855318875348200e-02 5.583380908010823068e-02 5.575578950342739704e-02 5.838155628007168224e-02 6.106309155990807119e-02 3.714160716138897866e-02 2.363683694856360401e-02 8.147115166479823589e-02 8.765804619505007667e-02 5.328148726858088907e-02 6.513137162410394254e-02 1.386052407845162204e-01 3.421754582658845800e-01 0.000000000000000000e+00 0.000000000000000000e+00
-2.495485410330116550e-23 1.139100155129147041e-19 -9.439716467399612843e-03 4.656739600536623919e-02 0.000000000000000000e+00 0.000000000000000000e+00 0.000000000000000000e+00 0.000000000000000000e+00 0.000000000000000000e+00 0.000000000000000000e+00 0.000000000000000000e+00 0.000000000000000000e+00 0.000000000000000000e+00 0.000000000000000000e+00 0.000000000000000000e+00 0.000000000000000000e+00 0.000000000000000000e+00 0.000000000000000000e+00 0.000000000000000000e+00 0.000000000000000000e+00 0.000000000000000000e+00 0.000000000000000000e+00 0.000000000000000000e+00 0.000000000000000000e+00 0.000000000000000000e+00 0.000000000000000000e+00 0.000000000000000000e+00 0.000000000000000000e+00 0.000000000000000000e+00 0.000000000000000000e+00 0.000000000000000000e+00 0.000000000000000000e+00
9.611311478912793779e-24 4.873923062101246540e-19 3.226499451869706877e-03 -1.589768493199821692e-02 8.538985099211951479e-02 0.000000000000000000e+00 0.000000000000000000e+00 0.000000000000000000e+00 0.000000000000000000e+00 0.000000000000000000e+00 0.000000000000000000e+00 0.000000000000000000e+00 0.000000000000000000e+00 0.000000000000000000e+00 0.000000000000000000e+00 0.000000000000000000e+00 0.000000000000000000e+00 0.000000000000000000e+00 0.000000000000000000e+00 0.000000000000000000e+00 0.000000000000000000e+00 0.000000000000000000e+00 0.000000000000000000e+00 0.000000000000000000e+00 0.000000000000000000e+00 0.000000000000000000e+00 0.000000000000000000e+00 0.000000000000000000e+00 0.000000000000000000e+00 0.000000000000000000e+00 0.000000000000000000e+00 0.000000000000000000e+00
3.600676126058511245e-23 -1.124726293861234543e-19 -2.690761657793763750e-05 1.287612198919758531e-04 -6.536726696116305739e-04 1.128288476096583476e-01 0.000000000000000000e+00 0.000000000000000000e+00 0.000000000000000000e+00 0.000000000000000000e+00 0.000000000000000000e+00 0.000000000000000000e+00 0.000000000000000000e+00 0.000000000000000000e+00 0.000000000000000000e+00 0.000000000000000000e+00 0.000000000000000000e+00 0.000000000000000000e+00 0.000000000000000000e+00 0.000000000000000000e+00 0.000000000000000000e+00 0.000000000000000000e+00 0.000000000000000000e+00 0.000000000000000000e+00 0.000000000000000000e+00 0.000000000000000000e+00 0.000000000000000000e+00 0.000000000000000000e+00 0.000000000000000000e+00 0.000000000000000000e+00 0.000000000000000000e+00 0.000000000000000000e+00
-1.319664210583169243e-23 4.223235151078916251e-19 1.942076600227399187e-04 -9.517034814117080561e-04 5.116982107388444445e-03 4.299865893935177555e-03 1.261648168086277055e-01 0.000000000000000000e+00 0.000000000000000000e+00 0.000000000000000000e+00 0.000000000000000000e+00 0.000000000000000000e+00 0.000000000000000000e+00 0.000000000000000000e+00 0.000000000000000000e+00 0.000000000000000000e+00 0.000000000000000000e+00 0.000000000000000000e+00 0.000000000000000000e+00 0.000000000000000000e+00 0.000000000000000000e+00 0.000000000000000000e+00 0.000000000000000000e+00 0.000000000000000000e+00 0.000000000000000000e+00 0.000000000000000000e+00 0.000000000000000000e+00 0.000000000000000000e+00 0.000000000000000000e+00 0.000000000000000000e+00 0.000000000000000000e+00 0.000000000000000000e+00
-1.404389930996213935e-22 1.223445254118607094e-19 -2.377731690490462882e-04 1.170647439512082031e-03 -6.271046094864088545e-03 4.013560029844774764e-04 -2.444033299263672840e-04 1.210121019529812741e-01 0.000000000000000000e+00 0.000000000000000000e+00 0.000000000000000000e+00 0.000000000000000000e+00 0.000000000000000000e+00 0.000000000000000000e+00 0.000000000000000000e+00 0.000000000000000000e+00 0.000000000000000000e+00 0.000000000000000000e+00 0.000000000000000000e+00 0.000000000000000000e+00 0.000000000000000000e+00 0.000000000000000000e+00 0.000000000000000000e+00 0.000000000000000000e+00 0.000000000000000000e+00 0.000000000000000000e+00 0.000000000000000000e+00 0.000000000000000000e+00 0.000000000000000000e+00 0.000000000000000000e+00 0.000000000000000000e+00 0.000000000000000000e+00
-1.218622682235019312e-22 -6.415263478142157747e-20 7.534333836325944904e-05 -3.684574823500315929e-04 1.979694049436070413e-03 -6.940918285258793931e-03 4.821819994764373063e-04 -6.817338475468113709e-03 1.404857316048516991e-01 0.000000000000000000e+00 0.000000000000000000e+00 0.000000000000000000e+00 0.000000000000000000e+00 0.000000000000000000e+00 0.000000000000000000e+00 0.000000000000000000e+00 0.000000000000000000e+00 0.000000000000000000e+00 0.000000000000000000e+00 0.000000000000000000e+00 0.000000000000000000e+00 0.000000000000000000e+00 0.000000000000000000e+00 0.000000000000000000e+00 0.000000000000000000e+00 0.000000000000000000e+00 0.000000000000000000e+00 0.000000000000000000e+00 0.000000000000000000e+00 0.000000000000000000e+00 0.000000000000000000e+00 0.000000000000000000e+00
-5.875684899558895675e-23 2.617107680545959552e-19 2.086945088457664983e-06 -1.023755743204833910e-05 5.964446710483761109e-05 2.510496854197059521e-03 -7.346930014924413048e-03 -5.075045745607966244e-03 3.282938959662618471e-03 1.616811889833159044e-01 0.000000000000000000e+00 0.000000000000000000e+00 0.000000000000000000e+00 0.000000000000000000e+00 0.000000000000000000e+00 0.000000000000000000e+00 0.000000000000000000e+00 0.000000000000000000e+00 0.000000000000000000e+00 0.000000000000000000e+00 0.000000000000000000e+00 0.000000000000000000e+00 0.000000000000000000e+00 0.000000000000000000e+00 0.000000000000000000e+00 0.000000000000000000e+00 0.000000000000000000e+00 0.000000000000000000e+00 0.000000000000000000e+00 0.000000000000000000e+00 0.000000000000000000e+00 0.000000000000000000e+00
3.296005278963348112e-22 -5.371288721554417024e-20 1.588431287190057337e-05 -7.786221779371040161e-05 4.186997952348372066e-04 2.477592151775958587e-04 2.995636151138434972e-03 -1.237067372600485736e-02 4.468970191795450242e-03 1.380298126485419996e-02 1.838651037383446374e-01 0.000000000000000000e+00 0.000000000000000000e+00 0.000000000000000000e+00 0.000000000000000000e+00 0.000000000000000000e+00 0.000000000000000000e+00 0.000000000000000000e+00 0.000000000000000000e+00 0.000000000000000000e+00 0.000000000000000000e+00 0.000000000000000000e+00 0.000000000000000000e+00 0.000000000000000000e+00 0.000000000000000000e+00 0.000000000000000000e+00 0.000000000000000000e+00 0.000000000000000000e+00 0.000000000000000000e+00 0.000000000000000000e+00 0.000000000000000000e+00 0.000000000000000000e+00
1.735681519388840080e-21 1.325345994639162992e-19 -2.798662608523273958e-07 1.441474231171808667e-06 -7.996186140670879638e-06 3.270482404748407002e-04 1.650282214757836283e-04 -1.534190572481637128e-03 -3.855064088246952340e-03 1.447653650116604608e-02 2.491241701495167798e-02 2.075590579107242928e-01 0.000000000000000000e+00 0.000000000000000000e+00 0.000000000000000000e+00 0.000000000000000000e+00 0.000000000000000000e+00 0.000000000000000000e+00 0.000000000000000000e+00 0.000000000000000000e+00 0.000000000000000000e+00 0.000000000000000000e+00 0.000000000000000000e+00 0.000000000000000000e+00 0.000000000000000000e+00 0.000000000000000000e+00 0.000000000000000000e+00 0.000000000000000000e+00 0.000000000000000000e+00 0.000000000000000000e+00 0.000000000000000000e+00 0.000000000000000000e+00
2.633663971106338567e-21 1.316045918538685810e-20 5.232685026200682006e-06 -2.567145611234317859e-05 1.372429965428261357e-04 -5.106988912439815919e-05 3.284442169725388955e-04 -2.801445423800327794e-03 4.800804183821496748e-03 1.782690002110236867e-03 2.012958428053374105e-02 2.943644616620021137e-02 2.204700980426468337e-01 0.000000000000000000e+00 0.000000000000000000e+00 0.000000000000000000e+00 0.000000000000000000e+00 0.000000000000000000e+00 0.000000000000000000e+00 0.000000000000000000e+00 0.000000000000000000e+00 0.000000000000000000e+00 0.000000000000000000e+00 0.000000000000000000e+00 0.000000000000000000e+00 0.000000000000000000e+00 0.000000000000000000e+00 0.000000000000000000e+00 0.000000000000000000e+00 0.000000000000000000e+00 0.000000000000000000e+00 0.000000000000000000e+00
-2.191684749480392453e-22 -2.277527092384212653e-19 1.095519570491150765e-06 -5.425347069681957159e-06 2.858810795026998770e-05 1.204133754343759440e-04 -6.766681549491885238e-05 -1.059885987680894964e-03 2.307207407856290329e-04 7.390501267084560906e-03 3.945673114851760283e-03 2.136347371619052443e-02 3.396638719041787657e-02 2.171251511617768581e-01 0.000000000000000000e+00 0.000000000000000000e+00 0.000000000000000000e+00 0.000000000000000000e+00 0.000000000000000000e+00 0.000000000000000000e+00 0.000000000000000000e+00 0.000000000000000000e+00 0.000000000000000000e+00 0.000000000000000000e+00 0.000000000000000000e+00 0.000000000000000000e+00 0.000000000000000000e+00 0.000000000000000000e+00 0.000000000000000000e+00 0.000000000000000000e+00 0.000000000000000000e+00 0.000000000000000000e+00
-3.955555981612457180e-21 1.068398499831154293e-20 -2.589681008803205864e-07 1.243304061210800067e-06 -7.022495638232473860e-06 1.466423578042698244e-05 1.179485775413374434e-04 -5.933803147939475421e-05 -7.989848148158805452e-04 -2.102325735161528382e-04 6.599042193736183622e-03 2.344963533247991158e-03 2.237637718524590133e-02 2.953081943015352026e-02 2.039761926637310707e-01 0.000000000000000000e+00 0.000000000000000000e+00 0.000000000000000000e+00 0.000000000000000000e+00 0.000000000000000000e+00 0.000000000000000000e+00 0.000000000000000000e+00 0.000000000000000000e+00 0.000000000000000000e+00 0.000000000000000000e+00 0.000000000000000000e+00 0.000000000000000000e+00 0.000000000000000000e+00 0.000000000000000000e+00 0.000000000000000000e+00 0.000000000000000000e+00 0.000000000000000000e+00
-1.003059446523392489e-20 -1.559350655950330236e-19 -2.245989891841163047e-06 1.107510276484840379e-05 -5.918016408688921690e-05 -2.121268274160110812e-05 4.912483194697703367e-06 1.251054109397307110e-03 -2.155425038230692793e-03 -3.600452091865262438e-03 -3.248273765714313008e-03 2.310661245709590139e-03 1.486871035684586648e-03 1.669006412879711285e-02 2.795571720324573420e-02 1.405354478491551984e-01 0.000000000000000000e+00 0.000000000000000000e+00 0.000000000000000000e+00 0.000000000000000000e+00 0.000000000000000000e+00 0.000000000000000000e+00 0.000000000000000000e+00 0.000000000000000000e+00 0.000000000000000000e+00 0.000000000000000000e+00 0.000000000000000000e+00 0.000000000000000000e+00 0.000000000000000000e+00 0.000000000000000000e+00 0.000000000000000000e+00 0.000000000000000000e+00
-1.378034385556125259e-20 -1.947900199874250748e-19 1.613707208938024190e-06 -7.787197760250504154e-06 4.233567289937441172e-05 -9.053996534280755733e-05 -3.552925793440642307e-05 -3.571927851922758815e-04 2.612259561263880446e-03 -2.360373544005152369e-03 -4.837324773490562883e-03 -7.070377117746413399e-03 3.681701654801470755e-03 -6.898975478919678987e-03 9.532185011570441097e-03 -4.089274023616898401e-02 4.679898636103345666e-01 0.000000000000000000e+00 0.000000000000000000e+00 0.000000000000000000e+00 0.000000000000000000e+00 0.000000000000000000e+00 0.000000000000000000e+00 0.000000000000000000e+00 0.000000000000000000e+00 0.000000000000000000e+00 0.000000000000000000e+00 0.000000000000000000e+00 0.000000000000000000e+00 0.000000000000000000e+00 0.000000000000000000e+00 0.000000000000000000e+00
-8.559156445143337692e-21 5.002914043403141954e-21 7.705623285550813502e-07 -3.606074300517451611e-06 2.055980914665922203e-05 3.801654854552667277e-05 -1.035569306621558972e-04 -4.473132589524946110e-04 7.977844149701302564e-04 3.182838300236899912e-03 -2.764972682163280814e-03 -7.115197153740608974e-03 -6.184200823530777366e-03 -1.705031770802639245e-03 -1.106219364718208885e-02 -3.426513204702317378e-02 1.028242726734483609e-01 4.506288568270517825e-01 0.000000000000000000e+00 0.000000000000000000e+00 0.000000000000000000e+00 0.000000000000000000e+00 0.000000000000000000e+00 0.000000000000000000e+00 0.000000000000000000e+00 0.000000000000000000e+00 0.000000000000000000e+00 0.000000000000000000e+00 0.000000000000000000e+00 0.000000000000000000e+00 0.000000000000000000e+00 0.000000000000000000e+00
-6.963663500201363112e-21 -1.557456513877129274e-19 8.679157399894038403e-07 -4.191078937781065731e-06 2.324658787207796638e-05 1.330495753729704017e-05 3.801304642193974138e-05 -5.355831525621994847e-04 6.708979801990130453e-04 1.371312653702074207e-03 3.406792109207286076e-03 -4.227703823687084007e-03 -6.322987405981852702e-03 -1.025486421574991515e-02 -5.393364349059123070e-03 -4.291578500865125823e-02 7.691273918163976653e-02 9.863098874415643369e-02 4.351352053883249527e-01 0.000000000000000000e+00 0.000000000000000000e+00 0.000000000000000000e+00 0.000000000000000000e+00 0.000000000000000000e+00 0.000000000000000000e+00 0.000000000000000000e+00 0.000000000000000000e+00 0.000000000000000000e+00 0.000000000000000000e+00 0.000000000000000000e+00 0.000000000000000000e+00 0.000000000000000000e+00
-3.137896354727983098e-20 1.845233576411294164e-19 4.941876903448230811e-07 -2.421016910197707572e-06 1.335139100280314134e-05 1.360432035747899244e-05 7.253737185335260936e-06 -3.184870840377322871e-04 3.822236139562999193e-04 1.149508305009569941e-03 1.484664476824870943e-03 2.452490343263082767e-03 -3.469676734191588265e-03 -9.711433052257988086e-03 -1.302193595051467229e-02 -3.256425418389137516e-02 4.158046176321855691e-02 7.366422314986552367e-02 9.459191786318674189e-02 4.211829301931780956e-01 0.000000000000000000e+00 0.000000000000000000e+00 0.000000000000000000e+00 0.000000000000000000e+00 0.000000000000000000e+00 0.000000000000000000e+00 0.000000000000000000e+00 0.000000000000000000e+00 0.000000000000000000e+00 0.000000000000000000e+00 0.000000000000000000e+00 0.000000000000000000e+00
1.785977389879623471e-20 2.244535518185691029e-19 5.606355544668237744e-07 -2.768468222455130254e-06 1.491734685516444099e-05 4.387616572106223553e-06 8.793326453251159116e-06 -3.160657996710102132e-04 5.236286617623353004e-04 7.959743188975129625e-04 1.235419404973692355e-03 5.634092709244696660e-04 3.327287867088945736e-03 -6.438743003939586748e-03 -1.219491764251671301e-02 -3.569174840105523300e-02 4.538442886790078346e-02 3.869104513744238416e-02 6.964751369058469477e-02 8.955926023088281451e-02 4.065017375861366133e-01 0.000000000000000000e+00 0.000000000000000000e+00 0.000000000000000000e+00 0.000000000000000000e+00 0.000000000000000000e+00 0.000000000000000000e+00 0.000000000000000000e+00 0.000000000000000000e+00 0.000000000000000000e+00 0.000000000000000000e+00 0.000000000000000000e+00
2.227644607422710194e-20 2.324767702017576939e-19 4.035733004793194936e-07 -2.049828478995779996e-06 1.069413517829342931e-05 7.613018453339028028e-06 -2.945655455346581640e-07 -2.459293232612600822e-04 3.586313285191225931e-04 8.411169420198372866e-04 8.139271948446114621e-04 3.700541230639495249e-04 1.286419661781585712e-03 6.121373910241685676e-04 -8.861887662872177870e-03 -3.270728022623348163e-02 2.945685068267127685e-02 4.315226394725791420e-02 3.681022693714771504e-02 6.728489058389912347e-02 8.782784859068826222e-02 3.963263968717481989e-01 0.000000000000000000e+00 0.000000000000000000e+00 0.000000000000000000e+00 0.000000000000000000e+00 0.000000000000000000e+00 0.000000000000000000e+00 0.000000000000000000e+00 0.000000000000000000e+00 0.000000000000000000e+00 0.000000000000000000e+00
1.599012009173619378e-20 -1.626367097441471770e-21 3.541461233551423294e-07 -1.843443238466988046e-06 9.224815137650910438e-06 3.309004406205120138e-06 2.929862600717623214e-06 -2.102582790577171249e-04 3.277768398484389497e-04 5.845068599352099990e-04 7.930809617682787766e-04 -1.007105249197444473e-04 1.000374880784280201e-03 -1.352062819483440537e-03 -1.893408656978980186e-03 -2.934820455009694642e-02 3.077611378258524738e-02 2.837515194450775102e-02 4.163582145354689096e-02 3.564371241231518994e-02 6.687937407702522485e-02 8.571820695280446545e-02 3.956909244248023594e-01 0.000000000000000000e+00 0.000000000000000000e+00 0.000000000000000000e+00 0.000000000000000000e+00 0.000000000000000000e+00 0.000000000000000000e+00 0.000000000000000000e+00 0.000000000000000000e+00 0.000000000000000000e+00
1.072455545154214104e-19 -2.004088878701496404e-19 3.439023398808314844e-07 -1.760508543117390602e-06 8.752919516887491206e-06 1.538219160578461659e-06 -2.192557101237865598e-06 -1.932758361850695048e-04 3.368055388381496350e-04 5.199863801656633318e-04 4.880039021857591336e-04 -1.895475891083081761e-04 4.909286560139545976e-04 -1.728837032287806538e-03 -3.813577762993331996e-03 -2.388424068365553599e-02 3.769776586879089453e-02 3.004729051480669461e-02 2.746241891253034528e-02 4.068996662090094973e-02 3.553207551656314966e-02 6.578260978961952832e-02 8.600428050695238524e-02 4.042597505528787716e-01 0.000000000000000000e+00 0.000000000000000000e+00 0.000000000000000000e+00 0.000000000000000000e+00 0.000000000000000000e+00 0.000000000000000000e+00 0.000000000000000000e+00 0.000000000000000000e+00
-9.137869506065460486e-20 -1.198008882663650710e-19 4.179202343495427318e-07 -2.112943242968291300e-06 1.086129055483128991e-05 1.060764493518948840e-06 -3.272607016655098936e-06 -2.251795970949307295e-04 4.278659041425667887e-04 5.715904917660483142e-04 4.345063627026713132e-04 -5.474799284120024628e-04 4.541736244925872979e-04 -2.382362281936145718e-03 -4.317302829819346342e-03 -2.663244988351354259e-02 5.118418629380178803e-02 3.642301724021580756e-02 2.852386767087063471e-02 2.567612950985033102e-02 4.025658873034034663e-02 3.316693034984451172e-02 6.453838695424042593e-02 8.128190277670221953e-02 4.624602084181965167e-01 0.000000000000000000e+00 0.000000000000000000e+00 0.000000000000000000e+00 0.000000000000000000e+00 0.000000000000000000e+00 0.000000000000000000e+00 0.000000000000000000e+00
-3.417713142945988814e-20 -1.366429258681569662e-19 4.377281299978553479e-07 -2.122165467419606964e-06 1.127284710817409331e-05 4.043458361564168367e-06 -4.024429986681127245e-06 -2.430542611912763244e-04 4.135906047437552108e-04 7.181886461452822740e-04 5.479910479023847010e-04 -5.710303864879402161e-04 9.805834961028755362e-05 -2.485256963440778902e-03 -5.188049584898029448e-03 -2.802147355102143494e-02 4.691294452113405761e-02 5.202934645019389320e-02 3.727088300681642014e-02 2.939298913505776836e-02 2.825372258652565985e-02 3.974444935188307937e-02 3.602573313527654419e-02 6.753759717201268664e-02 1.306014618184695442e-01 3.981880171063056917e-01 0.000000000000000000e+00 0.000000000000000000e+00 0.000000000000000000e+00 0.000000000000000000e+00 0.000000000000000000e+00 0.000000000000000000e+00
-2.848344167618865604e-20 -6.140059655669550742e-20 4.689815265021137045e-07 -2.263206221727662504e-06 1.243418014210295565e-05 4.834245197647265912e-06 -1.728113891354787440e-07 -2.626705704521618574e-04 4.394167112463490165e-04 7.461456919983600142e-04 7.310322470809509175e-04 -4.872059346828457645e-04 1.031739356674914670e-04 -3.010420401475119405e-03 -5.582376549301442011e-03 -3.047467946129239075e-02 4.902863996186433704e-02 4.975399143168474786e-02 5.385028050017398593e-02 3.924798270098084352e-02 3.293044244335949916e-02 2.957189489650582925e-02 4.292050690044081629e-02 4.063874682473778144e-02 1.124848098842843036e-01 1.089802897986581892e-01 3.540469821290609387e-01 0.000000000000000000e+00 0.000000000000000000e+00 0.000000000000000000e+00 0.000000000000000000e+00 0.000000000000000000e+00
-7.526306249054360882e-21 1.945626417733676262e-21 5.409641566542616779e-07 -2.668565837307831055e-06 1.450449863776595054e-05 5.823439563957874470e-06 -2.024995312082020876e-07 -3.069605331982497689e-04 5.155093352140975149e-04 8.842453466437749654e-04 8.521674735382085654e-04 -3.971352444369911677e-04 2.749342852696358289e-04 -3.535703344392742472e-03 -6.971460903100246999e-03 -3.609142246810934790e-02 5.666881756274293191e-02 5.771318366321462334e-02 5.782511471850803469e-02 6.135048818697261958e-02 4.813294495975221909e-02 3.940711642368573131e-02 3.798832404304208071e-02 5.051573428520766268e-02 8.953127168017049886e-02 1.008356303981646218e-01 9.943237126809584270e-02 3.318474204254279747e-01 0.000000000000000000e+00 0.000000000000000000e+00 0.000000000000000000e+00 0.000000000000000000e+00
7.716472298821063733e-22 1.097062899093301264e-19 -1.188698154070755498e-04 5.854238091773849911e-04 -3.135400608932096579e-03 2.018265830665260524e-04 -1.187698759231646355e-04 6.051866244850398480e-02 0.000000000000000000e+00 0.000000000000000000e+00 0.000000000000000000e+00 0.000000000000000000e+00 0.000000000000000000e+00 0.000000000000000000e+00 0.000000000000000000e+00 0.000000000000000000e+00 0.000000000000000000e+00 0.000000000000000000e+00 0.000000000000000000e+00 0.000000000000000000e+00 0.000000000000000000e+00 0.000000000000000000e+00 0.000000000000000000e+00 0.000000000000000000e+00 0.000000000000000000e+00 0.000000000000000000e+00 0.000000000000000000e+00 0.000000000000000000e+00 0.000000000000000000e+00 0.000000000000000000e+00 0.000000000000000000e+00 0.000000000000000000e+00
1.264101710011122849e-21 -8.932353272373164345e-21 4.344037717476260452e-05 -2.124722147553029586e-04 1.141547756942739092e-03 -3.605140911818077373e-03 2.559184151140407419e-04 -5.753186289516262070e-03 7.742254083634728112e-02 0.000000000000000000e+00 0.000000000000000000e+00 0.000000000000000000e+00 0.000000000000000000e+00 0.000000000000000000e+00 0.000000000000000000e+00 0.000000000000000000e+00 0.000000000000000000e+00 0.000000000000000000e+00 0.000000000000000000e+00 0.000000000000000000e+00 0.000000000000000000e+00 0.000000000000000000e+00 0.000000000000000000e+00 0.000000000000000000e+00 0.000000000000000000e+00 0.000000000000000000e+00 0.000000000000000000e+00 0.000000000000000000e+00 0.000000000000000000e+00 0.000000000000000000e+00 0.000000000000000000e+00 0.000000000000000000e+00
-1.211726239126801826e-22 6.650570811121640127e-20 2.655588188037853019e-06 -1.304146147975729670e-05 7.233381131597833478e-05 1.443369278806529198e-03 -3.892694111895900894e-03 -4.011540573288719519e-03 2.302025914013009888e-03 9.285237778816177179e-02 0.000000000000000000e+00 0.000000000000000000e+00 0.000000000000000000e+00 0.000000000000000000e+00 0.000000000000000000e+00 0.000000000000000000e+00 0.000000000000000000e+00 0.000000000000000000e+00 0.000000000000000000e+00 0.000000000000000000e+00 0.000000000000000000e+00 0.000000000000000000e+00 0.000000000000000000e+00 0.000000000000000000e+00 0.000000000000000000e+00 0.000000000000000000e+00 0.000000000000000000e+00 0.000000000000000000e+00 0.000000000000000000e+00 0.000000000000000000e+00 0.000000000000000000e+00 0.000000000000000000e+00
-1.708071951362166589e-21 -4.772509755325038982e-20 8.995927956122718878e-06 -4.410311729316637800e-05 2.369573371800917508e-04 1.630901031466387577e-04 1.705025656375416462e-03 -7.122383497382991924e-03 2.284715285849119645e-03 8.871611189680612963e-03 1.057712691763079693e-01 0.000000000000000000e+00 0.000000000000000000e+00 0.000000000000000000e+00 0.000000000000000000e+00 0.000000000000000000e+00 0.000000000000000000e+00 0.000000000000000000e+00 0.000000000000000000e+00 0.000000000000000000e+00 0.000000000000000000e+00 0.000000000000000000e+00 0.000000000000000000e+00 0.000000000000000000e+00 0.000000000000000000e+00 0.000000000000000000e+00 0.000000000000000000e+00 0.000000000000000000e+00 0.000000000000000000e+00 0.000000000000000000e+00 0.000000000000000000e+00 0.000000000000000000e+00
-3.744576784226310434e-21 -4.087794212844469498e-21 -7.742570722975051480e-07 3.859717627077865373e-06 -2.078975873363638824e-05 1.734429698882203525e-04 1.068050392759200455e-04 -5.106310920551372732e-04 -2.761320272148014461e-03 6.861469843288706474e-03 1.354006678985352624e-02 1.152793467716218129e-01 0.000000000000000000e+00 0.000000000000000000e+00 0.000000000000000000e+00 0.000000000000000000e+00 0.000000000000000000e+00 0.000000000000000000e+00 0.000000000000000000e+00 0.000000000000000000e+00 0.000000000000000000e+00 0.000000000000000000e+00 0.000000000000000000e+00 0.000000000000000000e+00 0.000000000000000000e+00 0.000000000000000000e+00 0.000000000000000000e+00 0.000000000000000000e+00 0.000000000000000000e+00 0.000000000000000000e+00 0.000000000000000000e+00 0.000000000000000000e+00
-4.744228034408974445e-21 -9.807925791096546508e-20 2.600467558322203896e-06 -1.270835591737220853e-05 6.814854217109897624e-05 -4.621534921726100858e-05 1.742128626173684641e-04 -1.302326602929594190e-03 2.537036069279125297e-03 -1.843924227330736090e-04 9.479217107220204788e-03 1.570702875449574154e-02 1.223606101474578323e-01 0.000000000000000000e+00 0.000000000000000000e+00 0.000000000000000000e+00 0.000000000000000000e+00 0.000000000000000000e+00 0.000000000000000000e+00 0.000000000000000000e+00 0.000000000000000000e+00 0.000000000000000000e+00 0.000000000000000000e+00 0.000000000000000000e+00 0.000000000000000000e+00 0.000000000000000000e+00 0.000000000000000000e+00 0.000000000000000000e+00 0.000000000000000000e+00 0.000000000000000000e+00 0.000000000000000000e+00 0.000000000000000000e+00
-6.802326294626111993e-21 -1.956001741434190593e-19 4.495830670531985276e-07 -2.161210084245359929e-06 1.176865728964066697e-05 6.059563312867060996e-05 -5.626592186517473642e-05 -4.508766194080589262e-04 8.383065087301099384e-05 3.696789274182384500e-03 6.627603729124654239e-04 9.894012993890109742e-03 1.792929843944589610e-02 1.208725603715583852e-01 0.000000000000000000e+00 0.000000000000000000e+00 0.000000000000000000e+00 0.000000000000000000e+00 0.000000000000000000e+00 0.000000000000000000e+00 0.000000000000000000e+00 0.000000000000000000e+00 0.000000000000000000e+00 0.000000000000000000e+00 0.000000000000000000e+00 0.000000000000000000e+00 0.000000000000000000e+00 0.000000000000000000e+00 0.000000000000000000e+00 0.000000000000000000e+00 0.000000000000000000e+00 0.000000000000000000e+00
-8.890730378893473880e-21 -6.152838049326632601e-20 -1.833323886043862459e-07 9.472649587872624500e-07 -4.791578945162056210e-06 5.971624358637471258e-06 6.055920237374519708e-05 1.031340404060606102e-05 -4.429185508488485672e-04 -2.677118513397572751e-04 3.168565777066072869e-03 -3.409932199999981921e-04 1.022476121167554923e-02 1.565853148150516197e-02 1.141841254343750334e-01 0.000000000000000000e+00 0.000000000000000000e+00 0.000000000000000000e+00 0.000000000000000000e+00 0.000000000000000000e+00 0.000000000000000000e+00 0.000000000000000000e+00 0.000000000000000000e+00 0.000000000000000000e+00 0.000000000000000000e+00 0.000000000000000000e+00 0.000000000000000000e+00 0.000000000000000000e+00 0.000000000000000000e+00 0.000000000000000000e+00 0.000000000000000000e+00 0.000000000000000000e+00
-2.527773208518496096e-20 -6.953324214934466118e-20 -1.208622471307184171e-06 6.001027118286573399e-06 -3.166877660026975772e-05 -1.142399976843653645e-05 1.447469127208418849e-06 6.811797417256525416e-04 -1.147560436240997912e-03 -1.955770623867574692e-03 -1.896567052226460614e-03 9.066352737682524619e-04 -9.370499023771347320e-04 7.300600676042107683e-03 1.502885870931822479e-02 8.094038773852985091e-02 0.000000000000000000e+00 0.000000000000000000e+00 0.000000000000000000e+00 0.000000000000000000e+00 0.000000000000000000e+00 0.000000000000000000e+00 0.000000000000000000e+00 0.000000000000000000e+00 0.000000000000000000e+00 0.000000000000000000e+00 0.000000000000000000e+00 0.000000000000000000e+00 0.000000000000000000e+00 0.000000000000000000e+00 0.000000000000000000e+00 0.000000000000000000e+00
-1.304153343831911500e-21 -5.044620222850596759e-20 1.549520398427316299e-06 -7.500933832610225780e-06 4.082511995998205499e-05 -5.915752247719626935e-05 -2.487736970354032648e-05 -4.820140563886872410e-04 2.233075499937077577e-03 -9.854622057357002776e-04 -2.774420711012320732e-03 -5.343939831544814584e-03 2.420977126612891984e-03 -9.232357897485171314e-03 4.504855265629703447e-05 -5.246931932216136046e-02 3.740332089355131728e-01 0.000000000000000000e+00 0.000000000000000000e+00 0.000000000000000000e+00 0.000000000000000000e+00 0.000000000000000000e+00 0.000000000000000000e+00 0.000000000000000000e+00 0.000000000000000000e+00 0.000000000000000000e+00 0.000000000000000000e+00 0.000000000000000000e+00 0.000000000000000000e+00 0.000000000000000000e+00 0.000000000000000000e+00 0.000000000000000000e+00
3.669458759762323223e-21 1.098780937671914231e-19 8.650682485105550387e-07 -4.147258190831955165e-06 2.306415068248285008e-05 3.217944660688601302e-05 -7.051073243718710077e-05 -5.085359869049488855e-04 8.458766981488533617e-04 2.855414825574265330e-03 -1.219219067969511431e-03 -4.974187599190805185e-03 -4.147616279790395516e-03 -3.392985150447028371e-03 -1.383557588763929466e-02 -4.628710726869150749e-02 9.913238027589507673e-02 3.553600414006968244e-01 0.000000000000000000e+00 0.000000000000000000e+00 0.000000000000000000e+00 0.000000000000000000e+00 0.000000000000000000e+00 0.000000000000000000e+00 0.000000000000000000e+00 0.000000000000000000e+00 0.000000000000000000e+00 0.000000000000000000e+00 0.000000000000000000e+00 0.000000000000000000e+00 0.000000000000000000e+00 0.000000000000000000e+00
2.005006291324379409e-21 -6.388403342533874946e-20 8.822087778746588941e-07 -4.331193354378555499e-06 2.349722731026655901e-05 1.276181469401586459e-05 2.878347787449645257e-05 -5.381756449786287769e-04 7.184869350280627398e-04 1.441375921416270054e-03 2.997123979847203350e-03 -2.837903737727189360e-03 -3.924003969756019103e-03 -8.821769677799394874e-03 -7.679517746227952982e-03 -5.055715713036834646e-02 7.741045155330761318e-02 9.471514235291740580e-02 3.408007444770903005e-01 0.000000000000000000e+00 0.000000000000000000e+00 0.000000000000000000e+00 0.000000000000000000e+00 0.000000000000000000e+00 0.000000000000000000e+00 0.000000000000000000e+00 0.000000000000000000e+00 0.000000000000000000e+00 0.000000000000000000e+00 0.000000000000000000e+00 0.000000000000000000e+00 0.000000000000000000e+00
1.408791462697216830e-20 8.607794178762212511e-20 6.023477797516660708e-07 -2.996865582665312122e-06 1.598489172001434162e-05 1.168181199775352973e-05 5.138855896484728304e-06 -3.703039250356371685e-04 5.098866133712489507e-04 1.220234976140863398e-03 1.492555320245474246e-03 1.696861761417136402e-03 -1.865631116129384728e-03 -8.120872653247344572e-03 -1.244477283358527697e-02 -4.129276801925715890e-02 5.385297894453019291e-02 7.452256830679802879e-02 9.111769048079031152e-02 3.298184218437519299e-01 0.000000000000000000e+00 0.000000000000000000e+00 0.000000000000000000e+00 0.000000000000000000e+00 0.000000000000000000e+00 0.000000000000000000e+00 0.000000000000000000e+00 0.000000000000000000e+00 0.000000000000000000e+00 0.000000000000000000e+00 0.000000000000000000e+00 0.000000000000000000e+00
5.877602786080622895e-21 1.105307978694316789e-19 6.620370128857785418e-07 -3.301572855206846475e-06 1.744910076061798734e-05 4.804375692953357209e-06 5.167392163482332233e-06 -3.722845044325514088e-04 6.298386852963912177e-04 9.703893614507116960e-04 1.253532804755763241e-03 1.992056996404489432e-04 2.762956314224156683e-03 -5.838443405100034699e-03 -1.166313602213931572e-02 -4.355620023884106129e-02 6.072363589113873722e-02 5.160667373728428792e-02 7.166805920323571222e-02 8.783003764014057912e-02 3.218117654275847728e-01 0.000000000000000000e+00 0.000000000000000000e+00 0.000000000000000000e+00 0.000000000000000000e+00 0.000000000000000000e+00 0.000000000000000000e+00 0.000000000000000000e+00 0.000000000000000000e+00 0.000000000000000000e+00 0.000000000000000000e+00 0.000000000000000000e+00
3.001357432235733879e-21 9.500589021425493581e-20 5.659802915965125106e-07 -2.838674058279758198e-06 1.483099184519144970e-05 7.618127201469218827e-06 -1.815161845591482450e-06 -3.307050321029917457e-04 5.224416603417344259e-04 1.039938234849758798e-03 9.636431318196347733e-04 -2.192369871187263444e-05 1.142147702212300935e-03 -1.071933127753727042e-03 -9.429909930911938021e-03 -4.189133269365763468e-02 5.084710363639834835e-02 5.978793462163765893e-02 5.075315151359383048e-02 7.063556775436204138e-02 8.757460473908615373e-02 3.178081585940540910e-01 0.000000000000000000e+00 0.000000000000000000e+00 0.000000000000000000e+00 0.000000000000000000e+00 0.000000000000000000e+00 0.000000000000000000e+00 0.000000000000000000e+00 0.000000000000000000e+00 0.000000000000000000e+00 0.000000000000000000e+00
-2.544304769697296964e-21 -6.259709556096298295e-20 5.443382220915570336e-07 -2.742771641690727588e-06 1.424110282032253275e-05 5.013859785582272993e-06 1.281974582597131211e-06 -3.132767020823781562e-04 5.107605221404798012e-04 8.792581962367929322e-04 9.965992539383620140e-04 -3.647139333500006020e-04 8.603064028000484420e-04 -2.727692246462526046e-03 -4.752791525248347554e-03 -4.014077738617974345e-02 5.291593387803422699e-02 5.080852116041893740e-02 5.954791027297387518e-02 5.053770153639206009e-02 7.114676882940002001e-02 8.666846275631551189e-02 3.211716546762539704e-01 0.000000000000000000e+00 0.000000000000000000e+00 0.000000000000000000e+00 0.000000000000000000e+00 0.000000000000000000e+00 0.000000000000000000e+00 0.000000000000000000e+00 0.000000000000000000e+00 0.000000000000000000e+00
8.218640077389483923e-20 -1.778606465842235435e-19 5.741497717663324714e-07 -2.875216102082186954e-06 1.498135753330179386e-05 4.362996319154973439e-06 -2.072909085903772628e-06 -3.234063441645273216e-04 5.537140073414202959e-04 9.010843814970417691e-04 8.506758736907785341e-04 -4.098932028093000483e-04 5.262159702819144006e-04 -3.307279941797630109e-03 -6.813892983140536208e-03 -3.886011577076251694e-02 6.160528935078062734e-02 5.613060798701868803e-02 5.383300354922000708e-02 6.279174462241543520e-02 5.396208624448279451e-02 7.391944646242597228e-02 9.071919804575251378e-02 3.395968145715065889e-01 0.000000000000000000e+00 0.000000000000000000e+00 0.000000000000000000e+00 0.000000000000000000e+00 0.000000000000000000e+00 0.000000000000000000e+00 0.000000000000000000e+00 0.000000000000000000e+00
4.937503401109272610e-21 -1.002081849775695561e-19 -6.062811445786784247e-07 3.002233080320268623e-06 -1.585738143887384811e-05 -5.747498442867656176e-06 5.565869102622177339e-07 3.404844209010769599e-04 -5.742784639666000633e-04 -9.785621957220935752e-04 -9.487625848423564224e-04 4.549831038721918307e-04 -4.669130945262502780e-04 3.652252608430105706e-03 7.510353545544501928e-03 4.047416789854005326e-02 0.000000000000000000e+00 0.000000000000000000e+00 0.000000000000000000e+00 0.000000000000000000e+00 0.000000000000000000e+00 0.000000000000000000e+00 0.000000000000000000e+00 0.000000000000000000e+00 0.000000000000000000e+00 0.000000000000000000e+00 0.000000000000000000e+00 0.000000000000000000e+00 0.000000000000000000e+00 0.000000000000000000e+00 0.000000000000000000e+00 0.000000000000000000e+00
